digraph Tree {
node [shape=box, style="filled, rounded", color="black", fontname="helvetica"] ;
edge [fontname="helvetica"] ;
0 [label="lstat <= 9.55\nsquared_error = 81.19\nsamples = 354\nvalue = 22.34", fillcolor="#f6d1b7"] ;
1 [label="rm <= 7.43\nsquared_error = 78.71\nsamples = 136\nvalue = 29.99", fillcolor="#f1bb94"] ;
0 -> 1 [labeldistance=2.5, labelangle=45, headlabel="True"] ;
2 [label="dis <= 1.48\nsquared_error = 45.06\nsamples = 117\nvalue = 27.67", fillcolor="#f2c29f"] ;
1 -> 2 ;
3 [label="squared_error = 0.0\nsamples = 4\nvalue = 50.0", fillcolor="#e58139"] ;
2 -> 3 ;
4 [label="rm <= 6.54\nsquared_error = 28.37\nsamples = 113\nvalue = 26.88", fillcolor="#f3c4a2"] ;
2 -> 4 ;
5 [label="(...)", fillcolor="#C0C0C0"] ;
4 -> 5 ;
12 [label="(...)", fillcolor="#C0C0C0"] ;
4 -> 12 ;
19 [label="ptratio <= 19.65\nsquared_error = 47.9\nsamples = 19\nvalue = 44.3", fillcolor="#e89253"] ;
1 -> 19 ;
20 [label="ptratio <= 17.9\nsquared_error = 21.14\nsamples = 18\nvalue = 45.54", fillcolor="#e88e4d"] ;
19 -> 20 ;
21 [label="(...)", fillcolor="#C0C0C0"] ;
20 -> 21 ;
28 [label="(...)", fillcolor="#C0C0C0"] ;
20 -> 28 ;
35 [label="squared_error = 0.0\nsamples = 1\nvalue = 21.9", fillcolor="#f6d2b9"] ;
19 -> 35 ;
36 [label="lstat <= 19.26\nsquared_error = 23.45\nsamples = 218\nvalue = 17.57", fillcolor="#f8dfcd"] ;
0 -> 36 [labeldistance=2.5, labelangle=-45, headlabel="False"] ;
37 [label="lstat <= 14.8\nsquared_error = 12.71\nsamples = 157\nvalue = 19.44", fillcolor="#f7dac4"] ;
36 -> 37 ;
38 [label="rm <= 6.58\nsquared_error = 9.14\nsamples = 96\nvalue = 20.82", fillcolor="#f6d6be"] ;
37 -> 38 ;
39 [label="(...)", fillcolor="#C0C0C0"] ;
38 -> 39 ;
46 [label="(...)", fillcolor="#C0C0C0"] ;
38 -> 46 ;
51 [label="crim <= 0.5\nsquared_error = 10.58\nsamples = 61\nvalue = 17.26", fillcolor="#f9e0ce"] ;
37 -> 51 ;
52 [label="(...)", fillcolor="#C0C0C0"] ;
51 -> 52 ;
57 [label="(...)", fillcolor="#C0C0C0"] ;
51 -> 57 ;
62 [label="nox <= 0.6\nsquared_error = 18.83\nsamples = 61\nvalue = 12.75", fillcolor="#fbede3"] ;
36 -> 62 ;
63 [label="rm <= 6.84\nsquared_error = 12.24\nsamples = 18\nvalue = 17.18", fillcolor="#f9e0ce"] ;
62 -> 63 ;
64 [label="(...)", fillcolor="#C0C0C0"] ;
63 -> 64 ;
71 [label="(...)", fillcolor="#C0C0C0"] ;
63 -> 71 ;
72 [label="crim <= 10.75\nsquared_error = 9.9\nsamples = 43\nvalue = 10.89", fillcolor="#fcf2eb"] ;
62 -> 72 ;
73 [label="(...)", fillcolor="#C0C0C0"] ;
72 -> 73 ;
78 [label="(...)", fillcolor="#C0C0C0"] ;
72 -> 78 ;
}